=== Run information ===

Scheme:weka.classifiers.meta.FilteredClassifier -F "weka.filters.MultiFilter -F \"weka.filters.unsupervised.attribute.Remove -R 1-3\" -F \"weka.filters.unsupervised.attribute.Remove -R 3-4\"" -W weka.classifiers.trees.RandomTree -- -K 0 -M 1.0 -S 1 -N 10
Relation:     output_clustered-weka.filters.unsupervised.attribute.StringToWordVector-R8-W1000-prune-rate-1.0-C-N0-stemmerweka.core.stemmers.NullStemmer-M1-tokenizerweka.core.tokenizers.AlphabeticTokenizer-weka.filters.unsupervised.attribute.Reorder-R1,2,3,4,5,6,7,9,10,11,12,13,14,15,16,17,18,19,20,21,22,23,24,25,26,27,28,29,30,31,32,33,34,35,36,37,38,39,40,41,42,43,44,45,46,47,48,49,50,51,52,53,54,55,56,57,58,59,60,61,62,63,64,65,66,67,68,69,70,71,72,73,74,75,76,77,78,79,80,81,82,83,84,85,8-weka.filters.unsupervised.attribute.StringToNominal-R4-5
Instances:    7273
Attributes:   85
              Instance_number
              id
              name
              gender
              relationshipstatus
              placeslived
              @@organizations@@
              amazing
              business
              car
              cars
              community
              company
              enthusiast
              experience
              geek
              marketing
              online
              sales
              staff
              tech
              time
              vehicles
              web
              world
              apple
              articles
              blog
              blogger
              church
              circle
              circles
              college
              computer
              degree
              developer
              development
              engineer
              expert
              food
              founder
              games
              google
              guy
              information
              interests
              internet
              law
              life
              love
              lover
              loves
              man
              manager
              media
              news
              owner
              passion
              photography
              politics
              school
              science
              seo
              services
              software
              solutions
              student
              team
              technology
              university
              website
              work
              writer
              apache
              consultant
              designer
              family
              fashion
              mom
              rugby
              valley
              wife
              analyst
              specialist
              Cluster
Test mode:10-fold cross-validation

=== Classifier model (full training set) ===

FilteredClassifier using weka.classifiers.trees.RandomTree -K 7 -M 1.0 -S 1 -N 10 on data filtered through weka.filters.MultiFilter -F "weka.filters.unsupervised.attribute.Remove -R 1-3" -F "weka.filters.unsupervised.attribute.Remove -R 3-4"

Filtered Header
@relation 'output_clustered-weka.filters.unsupervised.attribute.StringToWordVector-R8-W1000-prune-rate-1.0-C-N0-stemmerweka.core.stemmers.NullStemmer-M1-tokenizerweka.core.tokenizers.AlphabeticTokenizer-weka.filters.unsupervised.attribute.Reorder-R1,2,3,4,5,6,7,9,10,11,12,13,14,15,16,17,18,19,20,21,22,23,24,25,26,27,28,29,30,31,32,33,34,35,36,37,38,39,40,41,42,43,44,45,46,47,48,49,50,51,52,53,54,55,56,57,58,59,60,61,62,63,64,65,66,67,68,69,70,71,72,73,74,75,76,77,78,79,80,81,82,83,84,85,8-weka.filters.unsupervised.attribute.StringToNominal-R4-5-weka.filters.unsupervised.attribute.Remove-R1-3-weka.filters.unsupervised.attribute.Remove-R3-4-weka.filters.MultiFilter-Fweka.filters.unsupervised.attribute.Remove -R 1-3-Fweka.filters.unsupervised.attribute.Remove -R 3-4'

@attribute gender {male,female,'',other}
@attribute relationshipstatus {'',single,in_a_relationship,married,engaged,its_complicated,open_relationship,widowed,in_domestic_partnership,in_civil_union}
@attribute amazing numeric
@attribute business numeric
@attribute car numeric
@attribute cars numeric
@attribute community numeric
@attribute company numeric
@attribute enthusiast numeric
@attribute experience numeric
@attribute geek numeric
@attribute marketing numeric
@attribute online numeric
@attribute sales numeric
@attribute staff numeric
@attribute tech numeric
@attribute time numeric
@attribute vehicles numeric
@attribute web numeric
@attribute world numeric
@attribute apple numeric
@attribute articles numeric
@attribute blog numeric
@attribute blogger numeric
@attribute church numeric
@attribute circle numeric
@attribute circles numeric
@attribute college numeric
@attribute computer numeric
@attribute degree numeric
@attribute developer numeric
@attribute development numeric
@attribute engineer numeric
@attribute expert numeric
@attribute food numeric
@attribute founder numeric
@attribute games numeric
@attribute google numeric
@attribute guy numeric
@attribute information numeric
@attribute interests numeric
@attribute internet numeric
@attribute law numeric
@attribute life numeric
@attribute love numeric
@attribute lover numeric
@attribute loves numeric
@attribute man numeric
@attribute manager numeric
@attribute media numeric
@attribute news numeric
@attribute owner numeric
@attribute passion numeric
@attribute photography numeric
@attribute politics numeric
@attribute school numeric
@attribute science numeric
@attribute seo numeric
@attribute services numeric
@attribute software numeric
@attribute solutions numeric
@attribute student numeric
@attribute team numeric
@attribute technology numeric
@attribute university numeric
@attribute website numeric
@attribute work numeric
@attribute writer numeric
@attribute apache numeric
@attribute consultant numeric
@attribute designer numeric
@attribute family numeric
@attribute fashion numeric
@attribute mom numeric
@attribute rugby numeric
@attribute valley numeric
@attribute wife numeric
@attribute analyst numeric
@attribute specialist numeric
@attribute Cluster {cluster0,cluster1,cluster2,cluster3,cluster4,cluster5,cluster6,cluster7,cluster8,cluster9,cluster10,cluster11,cluster12,cluster13,cluster14}

@data


Classifier Model

RandomTree
==========

relationshipstatus = 
|   marketing < 0.5
|   |   time < 0.5
|   |   |   expert < 0.5
|   |   |   |   vehicles < 0.5
|   |   |   |   |   media < 0.5
|   |   |   |   |   |   life < 0.5
|   |   |   |   |   |   |   technology < 0.5
|   |   |   |   |   |   |   |   school < 0.5
|   |   |   |   |   |   |   |   |   gender = male
|   |   |   |   |   |   |   |   |   |   experience < 0.5
|   |   |   |   |   |   |   |   |   |   |   online < 0.5
|   |   |   |   |   |   |   |   |   |   |   |   business < 0.5
|   |   |   |   |   |   |   |   |   |   |   |   |   tech < 0.5
|   |   |   |   |   |   |   |   |   |   |   |   |   |   blogger < 0.5
|   |   |   |   |   |   |   |   |   |   |   |   |   |   |   geek < 0.5
|   |   |   |   |   |   |   |   |   |   |   |   |   |   |   |   community < 0.5
|   |   |   |   |   |   |   |   |   |   |   |   |   |   |   |   |   software < 0.5
|   |   |   |   |   |   |   |   |   |   |   |   |   |   |   |   |   |   games < 0.5
|   |   |   |   |   |   |   |   |   |   |   |   |   |   |   |   |   |   |   articles < 0.5
|   |   |   |   |   |   |   |   |   |   |   |   |   |   |   |   |   |   |   |   information < 0.5
|   |   |   |   |   |   |   |   |   |   |   |   |   |   |   |   |   |   |   |   |   university < 0.5
|   |   |   |   |   |   |   |   |   |   |   |   |   |   |   |   |   |   |   |   |   |   lover < 0.5
|   |   |   |   |   |   |   |   |   |   |   |   |   |   |   |   |   |   |   |   |   |   |   food < 0.5
|   |   |   |   |   |   |   |   |   |   |   |   |   |   |   |   |   |   |   |   |   |   |   |   world < 0.5
|   |   |   |   |   |   |   |   |   |   |   |   |   |   |   |   |   |   |   |   |   |   |   |   |   man < 0.5
|   |   |   |   |   |   |   |   |   |   |   |   |   |   |   |   |   |   |   |   |   |   |   |   |   |   development < 0.5
|   |   |   |   |   |   |   |   |   |   |   |   |   |   |   |   |   |   |   |   |   |   |   |   |   |   |   guy < 0.5 : cluster2 (445/0)
|   |   |   |   |   |   |   |   |   |   |   |   |   |   |   |   |   |   |   |   |   |   |   |   |   |   |   guy >= 0.5
|   |   |   |   |   |   |   |   |   |   |   |   |   |   |   |   |   |   |   |   |   |   |   |   |   |   |   |   engineer < 0.5
|   |   |   |   |   |   |   |   |   |   |   |   |   |   |   |   |   |   |   |   |   |   |   |   |   |   |   |   |   internet < 0.5 : cluster2 (2/0)
|   |   |   |   |   |   |   |   |   |   |   |   |   |   |   |   |   |   |   |   |   |   |   |   |   |   |   |   |   internet >= 0.5 : cluster0 (0/0)
|   |   |   |   |   |   |   |   |   |   |   |   |   |   |   |   |   |   |   |   |   |   |   |   |   |   |   |   engineer >= 0.5 : cluster2 (1/0)
|   |   |   |   |   |   |   |   |   |   |   |   |   |   |   |   |   |   |   |   |   |   |   |   |   |   development >= 0.5 : cluster0 (0/0)
|   |   |   |   |   |   |   |   |   |   |   |   |   |   |   |   |   |   |   |   |   |   |   |   |   man >= 0.5 : cluster0 (0/0)
|   |   |   |   |   |   |   |   |   |   |   |   |   |   |   |   |   |   |   |   |   |   |   |   world >= 0.5 : cluster0 (0/0)
|   |   |   |   |   |   |   |   |   |   |   |   |   |   |   |   |   |   |   |   |   |   |   food >= 0.5 : cluster2 (1/0)
|   |   |   |   |   |   |   |   |   |   |   |   |   |   |   |   |   |   |   |   |   |   lover >= 0.5 : cluster0 (0/0)
|   |   |   |   |   |   |   |   |   |   |   |   |   |   |   |   |   |   |   |   |   university >= 0.5 : cluster0 (0/0)
|   |   |   |   |   |   |   |   |   |   |   |   |   |   |   |   |   |   |   |   information >= 0.5
|   |   |   |   |   |   |   |   |   |   |   |   |   |   |   |   |   |   |   |   |   circles < 0.5
|   |   |   |   |   |   |   |   |   |   |   |   |   |   |   |   |   |   |   |   |   |   college < 0.5
|   |   |   |   |   |   |   |   |   |   |   |   |   |   |   |   |   |   |   |   |   |   |   website < 0.5 : cluster0 (0/0)
|   |   |   |   |   |   |   |   |   |   |   |   |   |   |   |   |   |   |   |   |   |   |   website >= 0.5 : cluster2 (1/0)
|   |   |   |   |   |   |   |   |   |   |   |   |   |   |   |   |   |   |   |   |   |   college >= 0.5 : cluster0 (0/0)
|   |   |   |   |   |   |   |   |   |   |   |   |   |   |   |   |   |   |   |   |   circles >= 0.5 : cluster0 (0/0)
|   |   |   |   |   |   |   |   |   |   |   |   |   |   |   |   |   |   |   articles >= 0.5 : cluster0 (0/0)
|   |   |   |   |   |   |   |   |   |   |   |   |   |   |   |   |   |   games >= 0.5
|   |   |   |   |   |   |   |   |   |   |   |   |   |   |   |   |   |   |   world < 0.5 : cluster2 (4/0)
|   |   |   |   |   |   |   |   |   |   |   |   |   |   |   |   |   |   |   world >= 0.5 : cluster5 (1/0)
|   |   |   |   |   |   |   |   |   |   |   |   |   |   |   |   |   software >= 0.5
|   |   |   |   |   |   |   |   |   |   |   |   |   |   |   |   |   |   google < 0.5
|   |   |   |   |   |   |   |   |   |   |   |   |   |   |   |   |   |   |   web < 0.5 : cluster2 (2/0)
|   |   |   |   |   |   |   |   |   |   |   |   |   |   |   |   |   |   |   web >= 0.5 : cluster0 (0/0)
|   |   |   |   |   |   |   |   |   |   |   |   |   |   |   |   |   |   google >= 0.5 : cluster0 (0/0)
|   |   |   |   |   |   |   |   |   |   |   |   |   |   |   |   community >= 0.5 : cluster0 (0/0)
|   |   |   |   |   |   |   |   |   |   |   |   |   |   |   geek >= 0.5
|   |   |   |   |   |   |   |   |   |   |   |   |   |   |   |   science < 0.5 : cluster5 (1/0)
|   |   |   |   |   |   |   |   |   |   |   |   |   |   |   |   science >= 0.5 : cluster0 (0/0)
|   |   |   |   |   |   |   |   |   |   |   |   |   |   blogger >= 0.5
|   |   |   |   |   |   |   |   |   |   |   |   |   |   |   designer < 0.5
|   |   |   |   |   |   |   |   |   |   |   |   |   |   |   |   internet < 0.5 : cluster2 (1/0)
|   |   |   |   |   |   |   |   |   |   |   |   |   |   |   |   internet >= 0.5 : cluster0 (0/0)
|   |   |   |   |   |   |   |   |   |   |   |   |   |   |   designer >= 0.5 : cluster0 (0/0)
|   |   |   |   |   |   |   |   |   |   |   |   |   tech >= 0.5 : cluster6 (5/0)
|   |   |   |   |   |   |   |   |   |   |   |   business >= 0.5 : cluster5 (2/0)
|   |   |   |   |   |   |   |   |   |   |   online >= 0.5 : cluster5 (2/0)
|   |   |   |   |   |   |   |   |   |   experience >= 0.5 : cluster0 (0/0)
|   |   |   |   |   |   |   |   |   gender = female : cluster9 (75/0)
|   |   |   |   |   |   |   |   |   gender =  : cluster14 (20/0)
|   |   |   |   |   |   |   |   |   gender = other : cluster0 (11/0)
|   |   |   |   |   |   |   |   school >= 0.5
|   |   |   |   |   |   |   |   |   games < 0.5
|   |   |   |   |   |   |   |   |   |   college < 0.5
|   |   |   |   |   |   |   |   |   |   |   gender = male
|   |   |   |   |   |   |   |   |   |   |   |   man < 0.5
|   |   |   |   |   |   |   |   |   |   |   |   |   community < 0.5
|   |   |   |   |   |   |   |   |   |   |   |   |   |   university < 0.5
|   |   |   |   |   |   |   |   |   |   |   |   |   |   |   degree < 0.5 : cluster2 (2/0)
|   |   |   |   |   |   |   |   |   |   |   |   |   |   |   degree >= 0.5 : cluster5 (1/0)
|   |   |   |   |   |   |   |   |   |   |   |   |   |   university >= 0.5 : cluster0 (0/0)
|   |   |   |   |   |   |   |   |   |   |   |   |   community >= 0.5 : cluster0 (0/0)
|   |   |   |   |   |   |   |   |   |   |   |   man >= 0.5 : cluster0 (0/0)
|   |   |   |   |   |   |   |   |   |   |   gender = female : cluster0 (0/0)
|   |   |   |   |   |   |   |   |   |   |   gender =  : cluster0 (0/0)
|   |   |   |   |   |   |   |   |   |   |   gender = other : cluster0 (0/0)
|   |   |   |   |   |   |   |   |   |   college >= 0.5 : cluster0 (0/0)
|   |   |   |   |   |   |   |   |   games >= 0.5 : cluster0 (0/0)
|   |   |   |   |   |   |   technology >= 0.5
|   |   |   |   |   |   |   |   circles < 0.5
|   |   |   |   |   |   |   |   |   software < 0.5
|   |   |   |   |   |   |   |   |   |   news < 0.5
|   |   |   |   |   |   |   |   |   |   |   gender = male
|   |   |   |   |   |   |   |   |   |   |   |   developer < 0.5
|   |   |   |   |   |   |   |   |   |   |   |   |   internet < 0.5
|   |   |   |   |   |   |   |   |   |   |   |   |   |   games < 0.5
|   |   |   |   |   |   |   |   |   |   |   |   |   |   |   tech < 0.5
|   |   |   |   |   |   |   |   |   |   |   |   |   |   |   |   web < 0.5
|   |   |   |   |   |   |   |   |   |   |   |   |   |   |   |   |   lover < 0.5
|   |   |   |   |   |   |   |   |   |   |   |   |   |   |   |   |   |   blogger < 0.5
|   |   |   |   |   |   |   |   |   |   |   |   |   |   |   |   |   |   |   world < 0.5
|   |   |   |   |   |   |   |   |   |   |   |   |   |   |   |   |   |   |   |   geek < 0.5 : cluster5 (3/0)
|   |   |   |   |   |   |   |   |   |   |   |   |   |   |   |   |   |   |   |   geek >= 0.5 : cluster5 (1/0)
|   |   |   |   |   |   |   |   |   |   |   |   |   |   |   |   |   |   |   world >= 0.5 : cluster0 (0/0)
|   |   |   |   |   |   |   |   |   |   |   |   |   |   |   |   |   |   blogger >= 0.5 : cluster0 (0/0)
|   |   |   |   |   |   |   |   |   |   |   |   |   |   |   |   |   lover >= 0.5 : cluster0 (0/0)
|   |   |   |   |   |   |   |   |   |   |   |   |   |   |   |   web >= 0.5 : cluster5 (1/0)
|   |   |   |   |   |   |   |   |   |   |   |   |   |   |   tech >= 0.5 : cluster0 (0/0)
|   |   |   |   |   |   |   |   |   |   |   |   |   |   games >= 0.5 : cluster0 (0/0)
|   |   |   |   |   |   |   |   |   |   |   |   |   internet >= 0.5 : cluster0 (0/0)
|   |   |   |   |   |   |   |   |   |   |   |   developer >= 0.5 : cluster0 (0/0)
|   |   |   |   |   |   |   |   |   |   |   gender = female : cluster0 (0/0)
|   |   |   |   |   |   |   |   |   |   |   gender =  : cluster0 (0/0)
|   |   |   |   |   |   |   |   |   |   |   gender = other : cluster0 (0/0)
|   |   |   |   |   |   |   |   |   |   news >= 0.5 : cluster0 (0/0)
|   |   |   |   |   |   |   |   |   software >= 0.5 : cluster0 (0/0)
|   |   |   |   |   |   |   |   circles >= 0.5 : cluster0 (0/0)
|   |   |   |   |   |   life >= 0.5
|   |   |   |   |   |   |   interests < 0.5
|   |   |   |   |   |   |   |   development < 0.5
|   |   |   |   |   |   |   |   |   technology < 0.5
|   |   |   |   |   |   |   |   |   |   world < 0.5
|   |   |   |   |   |   |   |   |   |   |   science < 0.5
|   |   |   |   |   |   |   |   |   |   |   |   circles < 0.5
|   |   |   |   |   |   |   |   |   |   |   |   |   business < 0.5
|   |   |   |   |   |   |   |   |   |   |   |   |   |   passion < 0.5
|   |   |   |   |   |   |   |   |   |   |   |   |   |   |   school < 0.5
|   |   |   |   |   |   |   |   |   |   |   |   |   |   |   |   internet < 0.5
|   |   |   |   |   |   |   |   |   |   |   |   |   |   |   |   |   family < 0.5
|   |   |   |   |   |   |   |   |   |   |   |   |   |   |   |   |   |   news < 0.5
|   |   |   |   |   |   |   |   |   |   |   |   |   |   |   |   |   |   |   experience < 0.5
|   |   |   |   |   |   |   |   |   |   |   |   |   |   |   |   |   |   |   |   gender = male : cluster13 (2/0)
|   |   |   |   |   |   |   |   |   |   |   |   |   |   |   |   |   |   |   |   gender = female : cluster9 (1/0)
|   |   |   |   |   |   |   |   |   |   |   |   |   |   |   |   |   |   |   |   gender =  : cluster0 (0/0)
|   |   |   |   |   |   |   |   |   |   |   |   |   |   |   |   |   |   |   |   gender = other : cluster0 (0/0)
|   |   |   |   |   |   |   |   |   |   |   |   |   |   |   |   |   |   |   experience >= 0.5 : cluster0 (0/0)
|   |   |   |   |   |   |   |   |   |   |   |   |   |   |   |   |   |   news >= 0.5 : cluster0 (0/0)
|   |   |   |   |   |   |   |   |   |   |   |   |   |   |   |   |   family >= 0.5 : cluster13 (1/0)
|   |   |   |   |   |   |   |   |   |   |   |   |   |   |   |   internet >= 0.5 : cluster9 (1/0)
|   |   |   |   |   |   |   |   |   |   |   |   |   |   |   school >= 0.5 : cluster0 (0/0)
|   |   |   |   |   |   |   |   |   |   |   |   |   |   passion >= 0.5 : cluster0 (0/0)
|   |   |   |   |   |   |   |   |   |   |   |   |   business >= 0.5 : cluster0 (0/0)
|   |   |   |   |   |   |   |   |   |   |   |   circles >= 0.5 : cluster0 (0/0)
|   |   |   |   |   |   |   |   |   |   |   science >= 0.5 : cluster0 (0/0)
|   |   |   |   |   |   |   |   |   |   world >= 0.5 : cluster13 (2/0)
|   |   |   |   |   |   |   |   |   technology >= 0.5 : cluster13 (1/0)
|   |   |   |   |   |   |   |   development >= 0.5 : cluster5 (1/0)
|   |   |   |   |   |   |   interests >= 0.5 : cluster13 (1/0)
|   |   |   |   |   media >= 0.5
|   |   |   |   |   |   owner < 0.5
|   |   |   |   |   |   |   solutions < 0.5
|   |   |   |   |   |   |   |   apple < 0.5
|   |   |   |   |   |   |   |   |   founder < 0.5
|   |   |   |   |   |   |   |   |   |   gender = male
|   |   |   |   |   |   |   |   |   |   |   online < 0.5
|   |   |   |   |   |   |   |   |   |   |   |   games < 0.5
|   |   |   |   |   |   |   |   |   |   |   |   |   web < 0.5 : cluster5 (2/0)
|   |   |   |   |   |   |   |   |   |   |   |   |   web >= 0.5 : cluster0 (0/0)
|   |   |   |   |   |   |   |   |   |   |   |   games >= 0.5 : cluster0 (0/0)
|   |   |   |   |   |   |   |   |   |   |   online >= 0.5 : cluster0 (0/0)
|   |   |   |   |   |   |   |   |   |   gender = female : cluster0 (0/0)
|   |   |   |   |   |   |   |   |   |   gender =  : cluster0 (0/0)
|   |   |   |   |   |   |   |   |   |   gender = other : cluster0 (0/0)
|   |   |   |   |   |   |   |   |   founder >= 0.5
|   |   |   |   |   |   |   |   |   |   services < 0.5
|   |   |   |   |   |   |   |   |   |   |   articles < 0.5
|   |   |   |   |   |   |   |   |   |   |   |   loves < 0.5 : cluster9 (1/0)
|   |   |   |   |   |   |   |   |   |   |   |   loves >= 0.5 : cluster0 (0/0)
|   |   |   |   |   |   |   |   |   |   |   articles >= 0.5 : cluster0 (0/0)
|   |   |   |   |   |   |   |   |   |   services >= 0.5 : cluster0 (0/0)
|   |   |   |   |   |   |   |   apple >= 0.5 : cluster0 (0/0)
|   |   |   |   |   |   |   solutions >= 0.5 : cluster0 (0/0)
|   |   |   |   |   |   owner >= 0.5 : cluster0 (0/0)
|   |   |   |   vehicles >= 0.5
|   |   |   |   |   gender = male : cluster2 (1/0)
|   |   |   |   |   gender = female : cluster0 (0/0)
|   |   |   |   |   gender =  : cluster14 (1/0)
|   |   |   |   |   gender = other : cluster0 (3/0)
|   |   |   expert >= 0.5
|   |   |   |   staff < 0.5 : cluster0 (0/0)
|   |   |   |   staff >= 0.5 : cluster9 (1/0)
|   |   time >= 0.5
|   |   |   tech < 0.5
|   |   |   |   life < 0.5
|   |   |   |   |   experience < 0.5
|   |   |   |   |   |   technology < 0.5
|   |   |   |   |   |   |   university < 0.5
|   |   |   |   |   |   |   |   school < 0.5
|   |   |   |   |   |   |   |   |   gender = male : cluster5 (2/0)
|   |   |   |   |   |   |   |   |   gender = female : cluster9 (1/0)
|   |   |   |   |   |   |   |   |   gender =  : cluster0 (0/0)
|   |   |   |   |   |   |   |   |   gender = other : cluster0 (0/0)
|   |   |   |   |   |   |   |   school >= 0.5
|   |   |   |   |   |   |   |   |   degree < 0.5
|   |   |   |   |   |   |   |   |   |   passion < 0.5
|   |   |   |   |   |   |   |   |   |   |   love < 0.5
|   |   |   |   |   |   |   |   |   |   |   |   family < 0.5 : cluster5 (1/0)
|   |   |   |   |   |   |   |   |   |   |   |   family >= 0.5 : cluster0 (0/0)
|   |   |   |   |   |   |   |   |   |   |   love >= 0.5 : cluster0 (0/0)
|   |   |   |   |   |   |   |   |   |   passion >= 0.5 : cluster0 (0/0)
|   |   |   |   |   |   |   |   |   degree >= 0.5 : cluster0 (0/0)
|   |   |   |   |   |   |   university >= 0.5 : cluster0 (0/0)
|   |   |   |   |   |   technology >= 0.5
|   |   |   |   |   |   |   passion < 0.5
|   |   |   |   |   |   |   |   guy < 0.5
|   |   |   |   |   |   |   |   |   school < 0.5 : cluster5 (1/0)
|   |   |   |   |   |   |   |   |   school >= 0.5 : cluster8 (1/0)
|   |   |   |   |   |   |   |   guy >= 0.5 : cluster0 (0/0)
|   |   |   |   |   |   |   passion >= 0.5 : cluster0 (0/0)
|   |   |   |   |   experience >= 0.5 : cluster0 (0/0)
|   |   |   |   life >= 0.5 : cluster0 (0/0)
|   |   |   tech >= 0.5
|   |   |   |   lover < 0.5
|   |   |   |   |   business < 0.5
|   |   |   |   |   |   loves < 0.5 : cluster8 (2/0)
|   |   |   |   |   |   loves >= 0.5 : cluster0 (0/0)
|   |   |   |   |   business >= 0.5 : cluster0 (0/0)
|   |   |   |   lover >= 0.5 : cluster0 (0/0)
|   marketing >= 0.5
|   |   internet < 0.5
|   |   |   solutions < 0.5
|   |   |   |   online < 0.5
|   |   |   |   |   vehicles < 0.5
|   |   |   |   |   |   company < 0.5
|   |   |   |   |   |   |   valley < 0.5
|   |   |   |   |   |   |   |   lover < 0.5 : cluster5 (2/0)
|   |   |   |   |   |   |   |   lover >= 0.5 : cluster0 (0/0)
|   |   |   |   |   |   |   valley >= 0.5 : cluster0 (0/0)
|   |   |   |   |   |   company >= 0.5 : cluster0 (0/0)
|   |   |   |   |   vehicles >= 0.5 : cluster0 (0/0)
|   |   |   |   online >= 0.5
|   |   |   |   |   expert < 0.5
|   |   |   |   |   |   team < 0.5
|   |   |   |   |   |   |   technology < 0.5
|   |   |   |   |   |   |   |   experience < 0.5
|   |   |   |   |   |   |   |   |   seo < 0.5
|   |   |   |   |   |   |   |   |   |   analyst < 0.5 : cluster5 (1/0)
|   |   |   |   |   |   |   |   |   |   analyst >= 0.5 : cluster0 (0/0)
|   |   |   |   |   |   |   |   |   seo >= 0.5 : cluster0 (0/0)
|   |   |   |   |   |   |   |   experience >= 0.5 : cluster0 (0/0)
|   |   |   |   |   |   |   technology >= 0.5
|   |   |   |   |   |   |   |   development < 0.5 : cluster14 (1/0)
|   |   |   |   |   |   |   |   development >= 0.5 : cluster0 (0/0)
|   |   |   |   |   |   team >= 0.5
|   |   |   |   |   |   |   gender = male : cluster5 (1/0)
|   |   |   |   |   |   |   gender = female : cluster0 (0/0)
|   |   |   |   |   |   |   gender =  : cluster0 (0/0)
|   |   |   |   |   |   |   gender = other : cluster0 (0/0)
|   |   |   |   |   expert >= 0.5 : cluster0 (0/0)
|   |   |   solutions >= 0.5 : cluster0 (0/0)
|   |   internet >= 0.5
|   |   |   world < 0.5
|   |   |   |   business < 0.5
|   |   |   |   |   life < 0.5
|   |   |   |   |   |   company < 0.5
|   |   |   |   |   |   |   enthusiast < 0.5
|   |   |   |   |   |   |   |   gender = male : cluster5 (2/0)
|   |   |   |   |   |   |   |   gender = female : cluster0 (0/0)
|   |   |   |   |   |   |   |   gender =  : cluster0 (0/0)
|   |   |   |   |   |   |   |   gender = other : cluster0 (0/0)
|   |   |   |   |   |   |   enthusiast >= 0.5 : cluster0 (0/0)
|   |   |   |   |   |   company >= 0.5 : cluster0 (0/0)
|   |   |   |   |   life >= 0.5 : cluster0 (0/0)
|   |   |   |   business >= 0.5
|   |   |   |   |   circle < 0.5
|   |   |   |   |   |   seo < 0.5
|   |   |   |   |   |   |   online < 0.5 : cluster0 (0/0)
|   |   |   |   |   |   |   online >= 0.5
|   |   |   |   |   |   |   |   company < 0.5 : cluster5 (1/0)
|   |   |   |   |   |   |   |   company >= 0.5 : cluster0 (0/0)
|   |   |   |   |   |   seo >= 0.5 : cluster5 (1/0)
|   |   |   |   |   circle >= 0.5 : cluster14 (2/0)
|   |   |   world >= 0.5
|   |   |   |   computer < 0.5
|   |   |   |   |   time < 0.5 : cluster0 (0/0)
|   |   |   |   |   time >= 0.5 : cluster5 (1/0)
|   |   |   |   computer >= 0.5 : cluster0 (0/0)
relationshipstatus = single
|   family < 0.5
|   |   world < 0.5
|   |   |   science < 0.5
|   |   |   |   news < 0.5
|   |   |   |   |   circle < 0.5
|   |   |   |   |   |   developer < 0.5
|   |   |   |   |   |   |   interests < 0.5
|   |   |   |   |   |   |   |   tech < 0.5
|   |   |   |   |   |   |   |   |   guy < 0.5
|   |   |   |   |   |   |   |   |   |   analyst < 0.5
|   |   |   |   |   |   |   |   |   |   |   photography < 0.5
|   |   |   |   |   |   |   |   |   |   |   |   blog < 0.5
|   |   |   |   |   |   |   |   |   |   |   |   |   founder < 0.5
|   |   |   |   |   |   |   |   |   |   |   |   |   |   politics < 0.5
|   |   |   |   |   |   |   |   |   |   |   |   |   |   |   games < 0.5
|   |   |   |   |   |   |   |   |   |   |   |   |   |   |   |   gender = male : cluster1 (22/0)
|   |   |   |   |   |   |   |   |   |   |   |   |   |   |   |   gender = female : cluster10 (5/0)
|   |   |   |   |   |   |   |   |   |   |   |   |   |   |   |   gender =  : cluster0 (0/0)
|   |   |   |   |   |   |   |   |   |   |   |   |   |   |   |   gender = other : cluster0 (0/0)
|   |   |   |   |   |   |   |   |   |   |   |   |   |   |   games >= 0.5 : cluster1 (2/0)
|   |   |   |   |   |   |   |   |   |   |   |   |   |   politics >= 0.5 : cluster0 (0/0)
|   |   |   |   |   |   |   |   |   |   |   |   |   founder >= 0.5
|   |   |   |   |   |   |   |   |   |   |   |   |   |   gender = male : cluster1 (1/0)
|   |   |   |   |   |   |   |   |   |   |   |   |   |   gender = female : cluster0 (0/0)
|   |   |   |   |   |   |   |   |   |   |   |   |   |   gender =  : cluster0 (0/0)
|   |   |   |   |   |   |   |   |   |   |   |   |   |   gender = other : cluster0 (0/0)
|   |   |   |   |   |   |   |   |   |   |   |   blog >= 0.5
|   |   |   |   |   |   |   |   |   |   |   |   |   student < 0.5 : cluster1 (1/0)
|   |   |   |   |   |   |   |   |   |   |   |   |   student >= 0.5 : cluster0 (0/0)
|   |   |   |   |   |   |   |   |   |   |   photography >= 0.5 : cluster0 (0/0)
|   |   |   |   |   |   |   |   |   |   analyst >= 0.5 : cluster0 (0/0)
|   |   |   |   |   |   |   |   |   guy >= 0.5 : cluster0 (0/0)
|   |   |   |   |   |   |   |   tech >= 0.5 : cluster1 (3/0)
|   |   |   |   |   |   |   interests >= 0.5 : cluster0 (0/0)
|   |   |   |   |   |   developer >= 0.5 : cluster1 (1/0)
|   |   |   |   |   circle >= 0.5 : cluster0 (0/0)
|   |   |   |   news >= 0.5 : cluster1 (2/0)
|   |   |   science >= 0.5 : cluster1 (3/0)
|   |   world >= 0.5 : cluster1 (1/0)
|   family >= 0.5 : cluster0 (0/0)
relationshipstatus = in_a_relationship
|   mom < 0.5
|   |   expert < 0.5
|   |   |   valley < 0.5
|   |   |   |   life < 0.5
|   |   |   |   |   experience < 0.5
|   |   |   |   |   |   gender = male : cluster12 (9/0)
|   |   |   |   |   |   gender = female : cluster11 (2/0)
|   |   |   |   |   |   gender =  : cluster0 (0/0)
|   |   |   |   |   |   gender = other : cluster0 (0/0)
|   |   |   |   |   experience >= 0.5 : cluster12 (1/0)
|   |   |   |   life >= 0.5 : cluster0 (0/0)
|   |   |   valley >= 0.5 : cluster0 (0/0)
|   |   expert >= 0.5 : cluster0 (0/0)
|   mom >= 0.5 : cluster0 (0/0)
relationshipstatus = married
|   marketing < 0.5
|   |   games < 0.5
|   |   |   gender = male
|   |   |   |   community < 0.5
|   |   |   |   |   cars < 0.5
|   |   |   |   |   |   services < 0.5
|   |   |   |   |   |   |   love < 0.5
|   |   |   |   |   |   |   |   work < 0.5
|   |   |   |   |   |   |   |   |   world < 0.5
|   |   |   |   |   |   |   |   |   |   degree < 0.5
|   |   |   |   |   |   |   |   |   |   |   business < 0.5
|   |   |   |   |   |   |   |   |   |   |   |   circle < 0.5
|   |   |   |   |   |   |   |   |   |   |   |   |   photography < 0.5
|   |   |   |   |   |   |   |   |   |   |   |   |   |   church < 0.5
|   |   |   |   |   |   |   |   |   |   |   |   |   |   |   time < 0.5
|   |   |   |   |   |   |   |   |   |   |   |   |   |   |   |   enthusiast < 0.5
|   |   |   |   |   |   |   |   |   |   |   |   |   |   |   |   |   life < 0.5
|   |   |   |   |   |   |   |   |   |   |   |   |   |   |   |   |   |   family < 0.5 : cluster4 (20/0)
|   |   |   |   |   |   |   |   |   |   |   |   |   |   |   |   |   |   family >= 0.5 : cluster0 (0/0)
|   |   |   |   |   |   |   |   |   |   |   |   |   |   |   |   |   life >= 0.5
|   |   |   |   |   |   |   |   |   |   |   |   |   |   |   |   |   |   software < 0.5
|   |   |   |   |   |   |   |   |   |   |   |   |   |   |   |   |   |   |   science < 0.5
|   |   |   |   |   |   |   |   |   |   |   |   |   |   |   |   |   |   |   |   technology < 0.5 : cluster0 (0/0)
|   |   |   |   |   |   |   |   |   |   |   |   |   |   |   |   |   |   |   |   technology >= 0.5 : cluster7 (1/0)
|   |   |   |   |   |   |   |   |   |   |   |   |   |   |   |   |   |   |   science >= 0.5 : cluster0 (0/0)
|   |   |   |   |   |   |   |   |   |   |   |   |   |   |   |   |   |   software >= 0.5 : cluster0 (0/0)
|   |   |   |   |   |   |   |   |   |   |   |   |   |   |   |   enthusiast >= 0.5 : cluster0 (0/0)
|   |   |   |   |   |   |   |   |   |   |   |   |   |   |   time >= 0.5 : cluster0 (0/0)
|   |   |   |   |   |   |   |   |   |   |   |   |   |   church >= 0.5 : cluster0 (0/0)
|   |   |   |   |   |   |   |   |   |   |   |   |   photography >= 0.5 : cluster0 (0/0)
|   |   |   |   |   |   |   |   |   |   |   |   circle >= 0.5 : cluster0 (0/0)
|   |   |   |   |   |   |   |   |   |   |   business >= 0.5 : cluster4 (1/0)
|   |   |   |   |   |   |   |   |   |   degree >= 0.5 : cluster4 (1/0)
|   |   |   |   |   |   |   |   |   world >= 0.5 : cluster0 (0/0)
|   |   |   |   |   |   |   |   work >= 0.5 : cluster4 (2/1)
|   |   |   |   |   |   |   love >= 0.5
|   |   |   |   |   |   |   |   enthusiast < 0.5
|   |   |   |   |   |   |   |   |   software < 0.5
|   |   |   |   |   |   |   |   |   |   life < 0.5 : cluster4 (3/0)
|   |   |   |   |   |   |   |   |   |   life >= 0.5 : cluster0 (0/0)
|   |   |   |   |   |   |   |   |   software >= 0.5 : cluster0 (0/0)
|   |   |   |   |   |   |   |   enthusiast >= 0.5 : cluster0 (0/0)
|   |   |   |   |   |   services >= 0.5
|   |   |   |   |   |   |   world < 0.5 : cluster0 (0/0)
|   |   |   |   |   |   |   world >= 0.5 : cluster4 (1/0)
|   |   |   |   |   cars >= 0.5 : cluster0 (0/0)
|   |   |   |   community >= 0.5 : cluster4 (1/0)
|   |   |   gender = female
|   |   |   |   time < 0.5
|   |   |   |   |   designer < 0.5
|   |   |   |   |   |   fashion < 0.5
|   |   |   |   |   |   |   seo < 0.5
|   |   |   |   |   |   |   |   circle < 0.5 : cluster9 (5/2)
|   |   |   |   |   |   |   |   circle >= 0.5 : cluster0 (0/0)
|   |   |   |   |   |   |   seo >= 0.5 : cluster0 (0/0)
|   |   |   |   |   |   fashion >= 0.5 : cluster0 (0/0)
|   |   |   |   |   designer >= 0.5 : cluster0 (0/0)
|   |   |   |   time >= 0.5 : cluster0 (0/0)
|   |   |   gender =  : cluster0 (0/0)
|   |   |   gender = other : cluster0 (0/0)
|   |   games >= 0.5
|   |   |   love < 0.5 : cluster0 (0/0)
|   |   |   love >= 0.5 : cluster10 (1/0)
|   marketing >= 0.5
|   |   seo < 0.5
|   |   |   community < 0.5
|   |   |   |   media < 0.5 : cluster0 (0/0)
|   |   |   |   media >= 0.5
|   |   |   |   |   services < 0.5
|   |   |   |   |   |   solutions < 0.5 : cluster4 (1/0)
|   |   |   |   |   |   solutions >= 0.5 : cluster0 (0/0)
|   |   |   |   |   services >= 0.5 : cluster0 (0/0)
|   |   |   community >= 0.5 : cluster4 (1/0)
|   |   seo >= 0.5 : cluster4 (1/0)
relationshipstatus = engaged
|   media < 0.5
|   |   family < 0.5
|   |   |   news < 0.5
|   |   |   |   wife < 0.5
|   |   |   |   |   information < 0.5
|   |   |   |   |   |   owner < 0.5
|   |   |   |   |   |   |   engineer < 0.5
|   |   |   |   |   |   |   |   tech < 0.5 : cluster2 (7/1)
|   |   |   |   |   |   |   |   tech >= 0.5 : cluster0 (0/0)
|   |   |   |   |   |   |   engineer >= 0.5 : cluster0 (0/0)
|   |   |   |   |   |   owner >= 0.5 : cluster0 (0/0)
|   |   |   |   |   information >= 0.5 : cluster4 (1/0)
|   |   |   |   wife >= 0.5 : cluster13 (1/0)
|   |   |   news >= 0.5 : cluster0 (0/0)
|   |   family >= 0.5 : cluster0 (0/0)
|   media >= 0.5 : cluster0 (0/0)
relationshipstatus = its_complicated
|   time < 0.5
|   |   world < 0.5
|   |   |   geek < 0.5
|   |   |   |   gender = male
|   |   |   |   |   online < 0.5 : cluster2 (1/0)
|   |   |   |   |   online >= 0.5 : cluster0 (0/0)
|   |   |   |   gender = female : cluster0 (0/0)
|   |   |   |   gender =  : cluster0 (0/0)
|   |   |   |   gender = other : cluster0 (0/0)
|   |   |   geek >= 0.5 : cluster12 (1/0)
|   |   world >= 0.5 : cluster0 (0/0)
|   time >= 0.5 : cluster0 (0/0)
relationshipstatus = open_relationship
|   marketing < 0.5
|   |   tech < 0.5
|   |   |   gender = male
|   |   |   |   man < 0.5 : cluster2 (1/0)
|   |   |   |   man >= 0.5 : cluster0 (0/0)
|   |   |   gender = female : cluster9 (1/0)
|   |   |   gender =  : cluster0 (0/0)
|   |   |   gender = other : cluster0 (0/0)
|   |   tech >= 0.5 : cluster0 (0/0)
|   marketing >= 0.5 : cluster0 (0/0)
relationshipstatus = widowed : cluster0 (1/0)
relationshipstatus = in_domestic_partnership : cluster0 (0/0)
relationshipstatus = in_civil_union : cluster11 (1/0)

Size of the tree : 453

Time taken to build model: 1.67 seconds

=== Stratified cross-validation ===
=== Summary ===

Correctly Classified Instances        6895               94.8027 %
Incorrectly Classified Instances       378                5.1973 %
Kappa statistic                          0.9071
Mean absolute error                      0.0073
Root mean squared error                  0.0784
Relative absolute error                  9.6337 %
Root relative squared error             40.3765 %
Total Number of Instances             7273     

=== Detailed Accuracy By Class ===

               TP Rate   FP Rate   Precision   Recall  F-Measure   ROC Area  Class
                 0.987     0          0.993     0.987     0.99       0.997    cluster0
                 0.858     0.005      0.896     0.858     0.877      0.937    cluster1
                 0.995     0.038      0.979     0.995     0.987      0.988    cluster2
                 0.857     0          0.857     0.857     0.857      0.928    cluster3
                 0.836     0.007      0.851     0.836     0.843      0.934    cluster4
                 0.662     0.012      0.677     0.662     0.669      0.883    cluster5
                 0.72      0.003      0.632     0.72      0.673      0.878    cluster6
                 0.35      0.001      0.538     0.35      0.424      0.723    cluster7
                 0.914     0.001      0.8       0.914     0.853      0.957    cluster8
                 0.967     0.003      0.974     0.967     0.97       0.985    cluster9
                 0.642     0          0.971     0.642     0.773      0.914    cluster10
                 0.452     0          0.824     0.452     0.583      0.773    cluster11
                 0.816     0.001      0.912     0.816     0.861      0.924    cluster12
                 0.778     0.004      0.714     0.778     0.745      0.909    cluster13
                 0.919     0.001      0.964     0.919     0.941      0.959    cluster14
Weighted Avg.    0.948     0.026      0.947     0.948     0.947      0.973

=== Confusion Matrix ===

    a    b    c    d    e    f    g    h    i    j    k    l    m    n    o   <-- classified as
  151    0    1    0    0    1    0    0    0    0    0    0    0    0    0 |    a = cluster0
    0  303   13    0    5   13    5    0    3    0    1    0    2    6    2 |    b = cluster1
    1    2 4652    0    2   15    0    0    1    0    0    0    1    0    0 |    c = cluster2
    0    0    0    6    1    0    0    0    0    0    0    0    0    0    0 |    d = cluster3
    0    9    6    1  285   22    3    1    1    4    0    0    2    5    2 |    e = cluster4
    0    7   58    0    7  182    5    1    2    5    0    0    0    7    1 |    f = cluster5
    0    1    4    0    3    5   36    0    0    0    0    0    0    0    1 |    g = cluster6
    0    0    3    0    4    2    0    7    0    0    0    1    0    2    1 |    h = cluster7
    0    0    0    0    0    3    0    0   32    0    0    0    0    0    0 |    i = cluster8
    0    1    5    0   10    6    0    0    0  814    0    1    0    5    0 |    j = cluster9
    0    9    0    0    4    0    0    0    0    6   34    0    0    0    0 |    k = cluster10
    0    0    0    0    5    0    0    1    0    6    0   14    4    1    0 |    l = cluster11
    0    2    5    0    1    3    5    0    1    0    0    1   93    2    1 |    m = cluster12
    0    0    2    0    4    8    2    3    0    1    0    0    0   70    0 |    n = cluster13
    0    4    1    0    4    9    1    0    0    0    0    0    0    0  216 |    o = cluster14

